svm_type c_svc
kernel_type rbf
gamma 4
nr_class 2
total_sv 278
rho 18.3106
label 1 -1
nr_sv 139 139
SV
2048 1:0.088535 2:0.068476 3:0.0269 
2048 1:0.154523 2:0.130138 3:0.03965 
2048 1:0.127523 2:0.108046 3:0.022296 
2048 1:0.148926 2:0.111 3:0.046486 
2048 1:0.22169 2:0.181593 3:0.04857 
2048 1:0.109553 2:0.095603 3:0.022719 
2048 1:0.155158 2:0.115248 3:0.051107 
2048 1:0.165647 2:0.136499 3:0.044689 
2048 1:0.131922 2:0.114 3:0.028 
2048 1:0.166677 2:0.134213 3:0.048036 
2048 1:0.265568 2:0.197626 3:0.079342 
2048 1:0.168229 2:0.133735 3:0.047893 
2048 1:0.149694 2:0.121062 3:0.036477 
2048 1:0.155873 2:0.126016 3:0.041773 
2048 1:0.074591 2:0.074525 3:0.00157 
2048 1:0.10184 2:0.087092 3:0.023148 
2048 1:0.169483 2:0.129375 3:0.048417 
2048 1:0.08776 2:0.083096 3:0.011962 
2048 1:0.112927 2:0.095352 3:0.030246 
2048 1:0.230243 2:0.208002 3:0.01863 
2048 1:0.235105 2:0.208082 3:0.04108 
2048 1:0.169294 2:0.132076 3:0.05035 
2048 1:0.173012 2:0.125929 3:0.052458 
2048 1:0.223875 2:0.186142 3:0.05326 
2048 1:0.217687 2:0.184068 3:0.052589 
2048 1:0.157932 2:0.127456 3:0.041591 
2048 1:0.175518 2:0.133959 3:0.055293 
2048 1:0.170319 2:0.131643 3:0.052186 
2048 1:0.100846 2:0.092445 3:0.020109 
2048 1:0.269661 2:0.193145 3:0.083129 
2048 1:0.116337 2:0.106174 3:0.02365 
2048 1:0.109701 2:0.096421 3:0.025918 
2048 1:0.145847 2:0.126384 3:0.035993 
2048 1:0.084395 2:0.082565 3:0.00872 
2048 1:0.172947 2:0.126321 3:0.052723 
2048 1:0.250601 2:0.194743 3:0.067088 
2048 1:0.085784 2:0.082976 3:0.010738 
2048 1:0.144571 2:0.122037 3:0.03317 
2048 1:0.086332 2:0.083522 3:0.009866 
2048 1:0.097184 2:0.093904 3:0.012428 
2048 1:0.209311 2:0.179446 3:0.046147 
2048 1:0.160036 2:0.129634 3:0.041471 
2048 1:0.130129 2:0.098351 3:0.042124 
2048 1:0.169625 2:0.137058 3:0.047688 
2048 1:0.111196 2:0.101769 3:0.022315 
2048 1:0.066612 2:0.060407 3:0.013575 
2048 1:0.199653 2:0.183576 3:0.036029 
2048 1:0.141643 2:0.121659 3:0.034514 
2048 1:0.091646 2:0.077647 3:0.021443 
2048 1:0.138994 2:0.114237 3:0.037449 
2048 1:0.172681 2:0.118828 3:0.056788 
2048 1:0.104878 2:0.098489 3:0.015413 
2048 1:0.239328 2:0.221443 3:0.038814 
2048 1:0.160779 2:0.123102 3:0.044077 
2048 1:0.117285 2:0.071028 3:0.045447 
2048 1:0.090384 2:0.085212 3:0.015068 
2048 1:0.140109 2:0.112929 3:0.036315 
2048 1:0.087388 2:0.084528 3:0.011085 
2048 1:0.206698 2:0.180602 3:0.041783 
2048 1:0.11793 2:0.104403 3:0.027375 
2048 1:0.219364 2:0.191638 3:0.050512 
2048 1:0.085155 2:0.081841 3:0.011754 
2048 1:0.155404 2:0.126004 3:0.04061 
2048 1:0.168858 2:0.124169 3:0.052203 
2048 1:0.096137 2:0.091005 3:0.015494 
2048 1:0.08154 2:0.079379 3:0.009322 
2048 1:0.163246 2:0.129248 3:0.040952 
2048 1:0.116854 2:0.105 3:0.0256 
2048 1:0.168381 2:0.131126 3:0.048778 
2048 1:0.229346 2:0.188733 3:0.050124 
2048 1:0.212945 2:0.186253 3:0.044225 
2048 1:0.169658 2:0.119854 3:0.055426 
2048 1:0.065047 2:0.06162 3:0.008909 
2048 1:0.11492 2:0.101514 3:0.026213 
2048 1:0.182682 2:0.135532 3:0.057374 
2048 1:0.111047 2:0.098412 3:0.025403 
2048 1:0.154849 2:0.121413 3:0.040465 
730.7433748214547 1:0.265564 2:0.189011 3:0.069329 
2048 1:0.14856 2:0.125004 3:0.038615 
2048 1:0.140477 2:0.120905 3:0.030379 
2048 1:0.227627 2:0.183371 3:0.053389 
2048 1:0.165757 2:0.131928 3:0.050088 
1866.67552165803 1:0.081416 2:0.081025 3:0.003986 
2048 1:0.100024 2:0.095016 3:0.015555 
2048 1:0.153103 2:0.131004 3:0.039526 
2048 1:0.166885 2:0.127945 3:0.049677 
2048 1:0.169452 2:0.117614 3:0.055529 
2048 1:0.157335 2:0.121824 3:0.048784 
2048 1:0.100644 2:0.096135 3:0.014833 
2048 1:0.159251 2:0.130177 3:0.042058 
2048 1:0.108175 2:0.099705 3:0.020811 
2048 1:0.051542 2:0.0514 3:0.001907 
339.6996156721913 1:0.197245 2:0.179179 3:0.03943 
2048 1:0.140905 2:0.120553 3:0.031745 
2048 1:0.253618 2:0.192585 3:0.04896 
2048 1:0.159775 2:0.133754 3:0.041726 
2048 1:0.100127 2:0.096462 3:0.013373 
2048 1:0.153425 2:0.124852 3:0.039599 
2048 1:0.207367 2:0.176618 3:0.050193 
2048 1:0.142234 2:0.12095 3:0.035461 
2048 1:0.242516 2:0.186301 3:0.061191 
2048 1:0.13236 2:0.110041 3:0.031616 
2048 1:0.234588 2:0.186024 3:0.067911 
2048 1:0.10483 2:0.089694 3:0.026825 
2048 1:0.132512 2:0.117201 3:0.027543 
2048 1:0.220277 2:0.207714 3:0.026922 
2048 1:0.127161 2:0.111324 3:0.025466 
2048 1:0.156158 2:0.128701 3:0.038803 
2048 1:0.080413 2:0.068884 3:0.018887 
1752.799307310682 1:0.18868 2:0.14046 3:0.059846 
2048 1:0.245963 2:0.197649 3:0.064584 
2048 1:0.214092 2:0.199249 3:0.037692 
2048 1:0.225848 2:0.189763 3:0.050242 
2048 1:0.210434 2:0.185777 3:0.038605 
2048 1:0.179055 2:0.129097 3:0.055354 
2048 1:0.064591 2:0.063891 3:0.004742 
2048 1:0.071486 2:0.06691 3:0.012166 
2048 1:0.123615 2:0.105537 3:0.026484 
2048 1:0.14082 2:0.123321 3:0.033701 
2048 1:0.128332 2:0.0964 3:0.030487 
2048 1:0.202523 2:0.188521 3:0.034447 
2048 1:0.116978 2:0.105475 3:0.025172 
2048 1:0.194724 2:0.135624 3:0.06661 
2048 1:0.115908 2:0.103354 3:0.023976 
2048 1:0.115757 2:0.103247 3:0.02617 
2048 1:0.080001 2:0.07823 3:0.00836 
2048 1:0.170323 2:0.127318 3:0.049608 
2048 1:0.136386 2:0.109809 3:0.037237 
2048 1:0.268742 2:0.192042 3:0.090397 
2048 1:0.16498 2:0.127063 3:0.049369 
2048 1:0.061086 2:0.060902 3:0.002364 
2048 1:0.165877 2:0.137383 3:0.044671 
2048 1:0.167073 2:0.13354 3:0.048562 
2048 1:0.12052 2:0.104809 3:0.026801 
2048 1:0.149743 2:0.119616 3:0.04272 
2048 1:0.253611 2:0.211142 3:0.057762 
2048 1:0.086932 2:0.085276 3:0.008443 
2048 1:0.197951 2:0.136971 3:0.07138 
2048 1:0.171472 2:0.135207 3:0.048991 
-2048 1:0.184525 2:0.141227 3:0.055018 
-2048 1:0.136902 2:0.118663 3:0.030565 
-2048 1:0.112655 2:0.098656 3:0.027185 
-2048 1:0.11958 2:0.101514 3:0.028637 
-246.792471592551 1:0.443901 2:0.204088 3:0.091343 
-2048 1:0.236413 2:0.196987 3:0.058623 
-2048 1:0.188561 2:0.145086 3:0.054795 
-2048 1:0.183617 2:0.144014 3:0.046759 
-2048 1:0.179118 2:0.141227 3:0.045862 
-2048 1:0.133298 2:0.118258 3:0.026349 
-2048 1:0.121615 2:0.104307 3:0.028301 
-933.2626981508074 1:0.069987 2:0.067779 3:0.008424 
-2048 1:0.121809 2:0.105152 3:0.027902 
-2048 1:0.07279 2:0.07052 3:0.00865 
-2048 1:0.234669 2:0.197254 3:0.052019 
-2048 1:0.110833 2:0.098732 3:0.025179 
-2048 1:0.078335 2:0.074726 3:0.011027 
-2048 1:0.116263 2:0.10017 3:0.02944 
-2048 1:0.179911 2:0.145169 3:0.046601 
-2048 1:0.117634 2:0.099725 3:0.031196 
-2048 1:0.062456 2:0.061717 3:0.004731 
-2048 1:0.076857 2:0.074041 3:0.00967 
-2048 1:0.188666 2:0.145055 3:0.054441 
-2048 1:0.112194 2:0.099464 3:0.025909 
-2048 1:0.113882 2:0.098995 3:0.028143 
-2048 1:0.124908 2:0.104307 3:0.030755 
-2048 1:0.137414 2:0.118258 3:0.030467 
-2048 1:0.235597 2:0.197649 3:0.058953 
-2048 1:0.137987 2:0.118258 3:0.030467 
-2048 1:0.109941 2:0.095268 3:0.025738 
-2048 1:0.114952 2:0.099081 3:0.029118 
-2048 1:0.113164 2:0.099298 3:0.027131 
-2048 1:0.191756 2:0.145124 3:0.057103 
-2048 1:0.136086 2:0.107187 3:0.036217 
-2048 1:0.241049 2:0.196563 3:0.061125 
-2048 1:0.209148 2:0.196087 3:0.03068 
-2048 1:0.119664 2:0.102626 3:0.028024 
-2048 1:0.2442 2:0.197649 3:0.066912 
-2048 1:0.236922 2:0.197649 3:0.056783 
-1461.862649719005 1:0.181991 2:0.103238 3:0.062787 
-2048 1:0.122826 2:0.102181 3:0.033783 
-2048 1:0.134397 2:0.117886 3:0.028205 
-2048 1:0.234107 2:0.19684 3:0.053556 
-2048 1:0.140536 2:0.118457 3:0.033058 
-2048 1:0.146379 2:0.118457 3:0.038292 
-2048 1:0.137705 2:0.118457 3:0.0311 
-2048 1:0.145479 2:0.119921 3:0.03735 
-2048 1:0.183643 2:0.104173 3:0.063836 
-2048 1:0.138874 2:0.118457 3:0.032079 
-2048 1:0.114734 2:0.100688 3:0.025405 
-2048 1:0.191476 2:0.145086 3:0.056759 
-2048 1:0.1375 2:0.118258 3:0.030467 
-2048 1:0.149847 2:0.118457 3:0.040116 
-2048 1:0.188916 2:0.10331 3:0.067873 
-2048 1:0.239756 2:0.198275 3:0.062196 
-2048 1:0.109633 2:0.099005 3:0.023524 
-2048 1:0.142011 2:0.119105 3:0.035565 
-2048 1:0.114734 2:0.100688 3:0.025405 
-2048 1:0.078674 2:0.077369 3:0.006941 
-2048 1:0.229218 2:0.19638 3:0.055988 
-2048 1:0.238425 2:0.196469 3:0.062351 
-2048 1:0.117658 2:0.099624 3:0.028798 
-2048 1:0.070678 2:0.07052 3:0.002354 
-2048 1:0.127476 2:0.102626 3:0.03352 
-2048 1:0.173114 2:0.145169 3:0.039444 
-2048 1:0.178364 2:0.145124 3:0.048235 
-2048 1:0.085257 2:0.081025 3:0.012132 
-2048 1:0.193704 2:0.102489 3:0.070954 
-2048 1:0.221754 2:0.197649 3:0.044412 
-2048 1:0.110833 2:0.098732 3:0.025179 
-2048 1:0.07053 2:0.069893 3:0.004664 
-2048 1:0.072168 2:0.07052 3:0.007388 
-2048 1:0.227629 2:0.19684 3:0.045595 
-2048 1:0.188507 2:0.102313 3:0.067948 
-2048 1:0.12218 2:0.102343 3:0.030163 
-2048 1:0.069967 2:0.068007 3:0.007955 
-2048 1:0.081677 2:0.081025 3:0.005036 
-2048 1:0.180359 2:0.143003 3:0.051628 
-2048 1:0.196856 2:0.147411 3:0.056502 
-2048 1:0.129433 2:0.118258 3:0.023406 
-2048 1:0.139971 2:0.118457 3:0.033058 
-2048 1:0.140243 2:0.118068 3:0.032778 
-2048 1:0.141528 2:0.119436 3:0.033131 
-2048 1:0.23058 2:0.196163 3:0.055382 
-2048 1:0.114505 2:0.099126 3:0.02864 
-2048 1:0.137221 2:0.10633 3:0.037158 
-2048 1:0.184525 2:0.141227 3:0.055018 
-2048 1:0.117268 2:0.099464 3:0.031006 
-2048 1:0.114396 2:0.099639 3:0.028081 
-2048 1:0.13824 2:0.118457 3:0.0311 
-2048 1:0.229917 2:0.197408 3:0.052977 
-2048 1:0.146845 2:0.119105 3:0.038462 
-2048 1:0.12751 2:0.104623 3:0.032125 
-2048 1:0.112384 2:0.100045 3:0.025578 
-2048 1:0.137078 2:0.118457 3:0.033058 
-2048 1:0.112693 2:0.098732 3:0.027164 
-2048 1:0.125715 2:0.102343 3:0.032665 
-2048 1:0.241137 2:0.19701 3:0.056388 
-2048 1:0.143311 2:0.119369 3:0.036165 
-2048 1:0.229658 2:0.196743 3:0.054802 
-2048 1:0.140536 2:0.118457 3:0.033058 
-2048 1:0.226576 2:0.198386 3:0.050084 
-2048 1:0.222572 2:0.197327 3:0.045974 
-2048 1:0.115904 2:0.09969 3:0.029512 
-2048 1:0.139662 2:0.118068 3:0.032778 
-2048 1:0.179015 2:0.146342 3:0.047655 
-2048 1:0.111865 2:0.096208 3:0.024509 
-2048 1:0.084644 2:0.077929 3:0.014256 
-2048 1:0.073782 2:0.07147 3:0.008759 
-2048 1:0.228189 2:0.197408 3:0.043782 
-2048 1:0.218202 2:0.196163 3:0.039865 
-2048 1:0.070769 2:0.068949 3:0.007745 
-2048 1:0.179233 2:0.143014 3:0.047226 
-2048 1:0.177616 2:0.107005 3:0.05896 
-2048 1:0.117324 2:0.099298 3:0.031239 
-2048 1:0.13824 2:0.118457 3:0.0311 
-2048 1:0.121718 2:0.103619 3:0.031616 
-2048 1:0.123756 2:0.100688 3:0.032407 
-2048 1:0.223804 2:0.196291 3:0.048087 
-2048 1:0.23903 2:0.19684 3:0.062757 
-2048 1:0.124929 2:0.101257 3:0.032788 
-2048 1:0.230573 2:0.19701 3:0.04848 
-2048 1:0.141143 2:0.118457 3:0.033058 
-2048 1:0.187432 2:0.10331 3:0.066876 
-2048 1:0.178364 2:0.145124 3:0.048235 
-2048 1:0.140386 2:0.118258 3:0.032429 
-2048 1:0.134127 2:0.118258 3:0.027525 
-2048 1:0.139869 2:0.119641 3:0.032915 
-2048 1:0.227187 2:0.196726 3:0.047767 
-2048 1:0.117143 2:0.099182 3:0.031155 
-2048 1:0.122012 2:0.099624 3:0.03194 
-2048 1:0.116235 2:0.099323 3:0.030184 
-2048 1:0.23628 2:0.197649 3:0.058629 
-2048 1:0.130552 2:0.102343 3:0.035723 
-2048 1:0.227446 2:0.196939 3:0.044455 
-2048 1:0.244714 2:0.197649 3:0.067792 
-2048 1:0.124818 2:0.103465 3:0.03117 
-2048 1:0.118527 2:0.106 3:0.024547 
-2048 1:0.061586 2:0.061131 3:0.00373 
